function [y1] = myNeuralNetworkFunction1(x1)
%MYNEURALNETWORKFUNCTION neural network simulation function.
%
% Auto-generated by MATLAB, 16-Mar-2019 18:09:44.
%
% [y1] = myNeuralNetworkFunction(x1) takes these arguments:
%   x = 2xQ matrix, input #1
% and returns:
%   y = 1xQ matrix, output #1
% where Q is the number of samples.

%#ok<*RPMT0>

% ===== NEURAL NETWORK CONSTANTS =====

% Input 1
x1_step1.xoffset = [0;0];
x1_step1.gain = [2;2];
x1_step1.ymin = -1;

% Layer 1
b1 = [-2.8526731644224234685;-1.446223449681142359;-6.4545359453684492124;0.099280597609439177886;1.6331073877407540351;0.54460615135530021647;9.2989981448599525748;-2.3487490116174418731;-4.325339014565658502;-9.0008711594989936344];
IW1_1 = [0.78688444655865563693 -2.6700476518047930874;1.8056280594660152339 2.6975782536480328311;-0.58852281258554184351 5.5604336351669916283;3.1325903514646120662 2.6394829508386048467;-0.059770161897855604571 1.2581496567595868985;3.4981304676508946372 -2.7005375285051913536;2.9628660042134713493 5.7163708481033150832;-4.9714019622053919889 -2.173317729207379756;-5.3824893881774062976 -0.78904178680454550854;-6.1590690309296256544 -2.4999083804156407851];

% Layer 2
b2 = -5.5866337856779395565;
LW2_1 = [0.77507000980005824609 -0.21434048438137434656 -1.1771309109981047403 -0.21929177136843547302 2.7071356858561306247 -0.058295378508749266799 7.5577456326377463469 0.20005676111616010893 0.3975885641687344485 4.9223234307954877309];

% Output 1
y1_step1.ymin = -1;
y1_step1.gain = 2;
y1_step1.xoffset = 0;

% ===== SIMULATION ========

% Dimensions
Q = size(x1,2); % samples

% Input 1
xp1 = mapminmax_apply(x1,x1_step1);

% Layer 1
a1 = tansig_apply(repmat(b1,1,Q) + IW1_1*xp1);

% Layer 2
a2 = repmat(b2,1,Q) + LW2_1*a1;

% Output 1
y1 = mapminmax_reverse(a2,y1_step1);
end

% ===== MODULE FUNCTIONS ========

% Map Minimum and Maximum Input Processing Function
function y = mapminmax_apply(x,settings)
y = bsxfun(@minus,x,settings.xoffset);
y = bsxfun(@times,y,settings.gain);
y = bsxfun(@plus,y,settings.ymin);
end

% Sigmoid Symmetric Transfer Function
function a = tansig_apply(n,~)
a = 2 ./ (1 + exp(-2*n)) - 1;
end

% Map Minimum and Maximum Output Reverse-Processing Function
function x = mapminmax_reverse(y,settings)
x = bsxfun(@minus,y,settings.ymin);
x = bsxfun(@rdivide,x,settings.gain);
x = bsxfun(@plus,x,settings.xoffset);
end
